digraph Tree {
node [shape=box] ;
0 [label="X[0] <= 0.987\nmse = 0.636\nsamples = 95629\nvalue = 1.327"] ;
1 [label="X[3] <= -0.652\nmse = 0.551\nsamples = 79945\nvalue = 1.286"] ;
0 -> 1 [labeldistance=2.5, labelangle=45, headlabel="True"] ;
2 [label="X[20] <= 1.17\nmse = 1.151\nsamples = 9582\nvalue = 1.454"] ;
1 -> 2 ;
3 [label="X[56] <= 0.006\nmse = 0.816\nsamples = 9567\nvalue = 1.448"] ;
2 -> 3 ;
4 [label="X[40] <= -0.527\nmse = 0.604\nsamples = 4663\nvalue = 1.349"] ;
3 -> 4 ;
5 [label="mse = 4.882\nsamples = 71\nvalue = 1.93"] ;
4 -> 5 ;
6 [label="mse = 0.532\nsamples = 4592\nvalue = 1.34"] ;
4 -> 6 ;
7 [label="X[28] <= -0.705\nmse = 1.0\nsamples = 4904\nvalue = 1.542"] ;
3 -> 7 ;
8 [label="mse = 0.0\nsamples = 1\nvalue = 9.0"] ;
7 -> 8 ;
9 [label="mse = 0.989\nsamples = 4903\nvalue = 1.54"] ;
7 -> 9 ;
10 [label="X[19] <= 0.47\nmse = 196.027\nsamples = 15\nvalue = 5.8"] ;
2 -> 10 ;
11 [label="X[5] <= 0.626\nmse = 1.495\nsamples = 14\nvalue = 2.071"] ;
10 -> 11 ;
12 [label="mse = 0.484\nsamples = 8\nvalue = 1.375"] ;
11 -> 12 ;
13 [label="mse = 1.333\nsamples = 6\nvalue = 3.0"] ;
11 -> 13 ;
14 [label="mse = 0.0\nsamples = 1\nvalue = 58.0"] ;
10 -> 14 ;
15 [label="X[7] <= 0.098\nmse = 0.464\nsamples = 70363\nvalue = 1.263"] ;
1 -> 15 ;
16 [label="X[8] <= 0.23\nmse = 0.393\nsamples = 46011\nvalue = 1.232"] ;
15 -> 16 ;
17 [label="X[0] <= 0.916\nmse = 0.455\nsamples = 31261\nvalue = 1.263"] ;
16 -> 17 ;
18 [label="mse = 0.435\nsamples = 29456\nvalue = 1.253"] ;
17 -> 18 ;
19 [label="mse = 0.754\nsamples = 1805\nvalue = 1.42"] ;
17 -> 19 ;
20 [label="X[51] <= -0.094\nmse = 0.257\nsamples = 14750\nvalue = 1.166"] ;
16 -> 20 ;
21 [label="mse = 0.374\nsamples = 1503\nvalue = 1.238"] ;
20 -> 21 ;
22 [label="mse = 0.243\nsamples = 13247\nvalue = 1.158"] ;
20 -> 22 ;
23 [label="X[18] <= 0.293\nmse = 0.593\nsamples = 24352\nvalue = 1.323"] ;
15 -> 23 ;
24 [label="X[18] <= 0.293\nmse = 0.603\nsamples = 20002\nvalue = 1.342"] ;
23 -> 24 ;
25 [label="mse = 0.601\nsamples = 20001\nvalue = 1.342"] ;
24 -> 25 ;
26 [label="mse = 0.0\nsamples = 1\nvalue = 8.0"] ;
24 -> 26 ;
27 [label="X[33] <= 0.9\nmse = 0.537\nsamples = 4350\nvalue = 1.234"] ;
23 -> 27 ;
28 [label="mse = 0.385\nsamples = 4328\nvalue = 1.229"] ;
27 -> 28 ;
29 [label="mse = 29.217\nsamples = 22\nvalue = 2.318"] ;
27 -> 29 ;
30 [label="X[5] <= 0.303\nmse = 1.018\nsamples = 15684\nvalue = 1.537"] ;
0 -> 30 [labeldistance=2.5, labelangle=-45, headlabel="False"] ;
31 [label="X[8] <= -0.096\nmse = 0.835\nsamples = 11857\nvalue = 1.478"] ;
30 -> 31 ;
32 [label="X[6] <= 0.094\nmse = 1.015\nsamples = 6901\nvalue = 1.557"] ;
31 -> 32 ;
33 [label="X[38] <= -0.651\nmse = 0.72\nsamples = 2527\nvalue = 1.455"] ;
32 -> 33 ;
34 [label="mse = 2.377\nsamples = 49\nvalue = 2.102"] ;
33 -> 34 ;
35 [label="mse = 0.679\nsamples = 2478\nvalue = 1.442"] ;
33 -> 35 ;
36 [label="X[4] <= -0.154\nmse = 1.176\nsamples = 4374\nvalue = 1.616"] ;
32 -> 36 ;
37 [label="mse = 0.965\nsamples = 1129\nvalue = 1.471"] ;
36 -> 37 ;
38 [label="mse = 1.24\nsamples = 3245\nvalue = 1.666"] ;
36 -> 38 ;
39 [label="X[4] <= 0.897\nmse = 0.563\nsamples = 4956\nvalue = 1.368"] ;
31 -> 39 ;
40 [label="X[48] <= -0.218\nmse = 0.526\nsamples = 4826\nvalue = 1.355"] ;
39 -> 40 ;
41 [label="mse = 12.25\nsamples = 2\nvalue = 4.5"] ;
40 -> 41 ;
42 [label="mse = 0.517\nsamples = 4824\nvalue = 1.353"] ;
40 -> 42 ;
43 [label="X[39] <= -0.052\nmse = 1.662\nsamples = 130\nvalue = 1.877"] ;
39 -> 43 ;
44 [label="mse = 2.84\nsamples = 26\nvalue = 2.923"] ;
43 -> 44 ;
45 [label="mse = 1.025\nsamples = 104\nvalue = 1.615"] ;
43 -> 45 ;
46 [label="X[54] <= 0.092\nmse = 1.541\nsamples = 3827\nvalue = 1.719"] ;
30 -> 46 ;
47 [label="X[56] <= 0.321\nmse = 1.641\nsamples = 2933\nvalue = 1.776"] ;
46 -> 47 ;
48 [label="X[0] <= 1.039\nmse = 1.634\nsamples = 2928\nvalue = 1.772"] ;
47 -> 48 ;
49 [label="mse = 0.815\nsamples = 413\nvalue = 1.542"] ;
48 -> 49 ;
50 [label="mse = 1.758\nsamples = 2515\nvalue = 1.81"] ;
48 -> 50 ;
51 [label="X[58] <= 0.087\nmse = 1.2\nsamples = 5\nvalue = 4.0"] ;
47 -> 51 ;
52 [label="mse = 0.25\nsamples = 4\nvalue = 3.5"] ;
51 -> 52 ;
53 [label="mse = 0.0\nsamples = 1\nvalue = 6.0"] ;
51 -> 53 ;
54 [label="X[24] <= 0.941\nmse = 1.168\nsamples = 894\nvalue = 1.535"] ;
46 -> 54 ;
55 [label="X[29] <= -0.413\nmse = 1.136\nsamples = 893\nvalue = 1.529"] ;
54 -> 55 ;
56 [label="mse = 16.69\nsamples = 10\nvalue = 3.1"] ;
55 -> 56 ;
57 [label="mse = 0.932\nsamples = 883\nvalue = 1.511"] ;
55 -> 57 ;
58 [label="mse = 0.0\nsamples = 1\nvalue = 7.0"] ;
54 -> 58 ;
}
